digraph Tree {
node [shape=box, style="filled, rounded", color="black", fontname=helvetica] ;
edge [fontname=helvetica] ;
0 [label="petal width (cm) <= 0.5\nmse = 0.24\nsamples = 2842\nvalue = 0.43", fillcolor="#f4c9aa"] ;
1 [label="petal length (cm) <= 0.5\nmse = 0.18\nsamples = 1317\nvalue = 0.23", fillcolor="#f9e2d1"] ;
0 -> 1 [labeldistance=2.5, labelangle=45, headlabel="True"] ;
2 [label="sepal width (cm) <= 0.5\nmse = 0.13\nsamples = 664\nvalue = 0.15", fillcolor="#fbece2"] ;
1 -> 2 ;
3 [label="sepal length (cm) <= 33.5\nmse = 0.08\nsamples = 277\nvalue = 0.09", fillcolor="#fdf4ee"] ;
2 -> 3 ;
4 [label="sepal length (cm) <= 25.5\nmse = 0.07\nsamples = 248\nvalue = 0.08", fillcolor="#fdf5ef"] ;
3 -> 4 ;
5 [label="sepal length (cm) <= 20.5\nmse = 0.1\nsamples = 140\nvalue = 0.11", fillcolor="#fcf1e9"] ;
4 -> 5 ;
6 [label="sepal length (cm) <= 18.5\nmse = 0.07\nsamples = 69\nvalue = 0.08", fillcolor="#fdf5f0"] ;
5 -> 6 ;
7 [label="sepal length (cm) <= 17.94\nmse = 0.11\nsamples = 39\nvalue = 0.12", fillcolor="#fcf0e7"] ;
6 -> 7 ;
8 [label="sepal length (cm) <= 17.44\nmse = 0.03\nsamples = 18\nvalue = 0.03", fillcolor="#fefbf9"] ;
7 -> 8 ;
9 [label="sepal length (cm) <= 16.5\nmse = 0.04\nsamples = 15\nvalue = 0.05", fillcolor="#fef9f6"] ;
8 -> 9 ;
10 [label="mse = 0.0\nsamples = 4\nvalue = 0.0", fillcolor="#ffffff"] ;
9 -> 10 ;
11 [label="mse = 0.06\nsamples = 11\nvalue = 0.06", fillcolor="#fdf7f3"] ;
9 -> 11 ;
12 [label="mse = 0.0\nsamples = 3\nvalue = 0.0", fillcolor="#ffffff"] ;
8 -> 12 ;
13 [label="mse = 0.16\nsamples = 21\nvalue = 0.21", fillcolor="#fae5d6"] ;
7 -> 13 ;
14 [label="sepal length (cm) <= 19.5\nmse = 0.02\nsamples = 30\nvalue = 0.02", fillcolor="#fefcfb"] ;
6 -> 14 ;
15 [label="mse = 0.0\nsamples = 17\nvalue = 0.0", fillcolor="#ffffff"] ;
14 -> 15 ;
16 [label="mse = 0.05\nsamples = 13\nvalue = 0.05", fillcolor="#fef8f5"] ;
14 -> 16 ;
17 [label="sepal length (cm) <= 22.5\nmse = 0.12\nsamples = 71\nvalue = 0.15", fillcolor="#fbede2"] ;
5 -> 17 ;
18 [label="sepal length (cm) <= 21.5\nmse = 0.15\nsamples = 26\nvalue = 0.18", fillcolor="#fae8db"] ;
17 -> 18 ;
19 [label="mse = 0.14\nsamples = 19\nvalue = 0.17", fillcolor="#fbeade"] ;
18 -> 19 ;
20 [label="mse = 0.17\nsamples = 7\nvalue = 0.22", fillcolor="#f9e3d3"] ;
18 -> 20 ;
21 [label="sepal length (cm) <= 23.5\nmse = 0.11\nsamples = 45\nvalue = 0.12", fillcolor="#fcefe6"] ;
17 -> 21 ;
22 [label="mse = 0.06\nsamples = 13\nvalue = 0.06", fillcolor="#fdf8f3"] ;
21 -> 22 ;
23 [label="sepal length (cm) <= 24.5\nmse = 0.13\nsamples = 32\nvalue = 0.15", fillcolor="#fbece2"] ;
21 -> 23 ;
24 [label="mse = 0.15\nsamples = 15\nvalue = 0.19", fillcolor="#fae7d9"] ;
23 -> 24 ;
25 [label="mse = 0.1\nsamples = 17\nvalue = 0.12", fillcolor="#fcf0e8"] ;
23 -> 25 ;
26 [label="sepal length (cm) <= 28.5\nmse = 0.04\nsamples = 108\nvalue = 0.04", fillcolor="#fefaf7"] ;
4 -> 26 ;
27 [label="sepal length (cm) <= 26.5\nmse = 0.01\nsamples = 50\nvalue = 0.01", fillcolor="#fffefd"] ;
26 -> 27 ;
28 [label="mse = 0.02\nsamples = 26\nvalue = 0.02", fillcolor="#fefcfa"] ;
27 -> 28 ;
29 [label="mse = 0.0\nsamples = 24\nvalue = 0.0", fillcolor="#ffffff"] ;
27 -> 29 ;
30 [label="sepal length (cm) <= 31.5\nmse = 0.06\nsamples = 58\nvalue = 0.07", fillcolor="#fdf7f2"] ;
26 -> 30 ;
31 [label="sepal length (cm) <= 29.5\nmse = 0.09\nsamples = 32\nvalue = 0.1", fillcolor="#fcf3ec"] ;
30 -> 31 ;
32 [label="mse = 0.11\nsamples = 17\nvalue = 0.12", fillcolor="#fcf0e7"] ;
31 -> 32 ;
33 [label="sepal length (cm) <= 30.5\nmse = 0.07\nsamples = 15\nvalue = 0.07", fillcolor="#fdf6f0"] ;
31 -> 33 ;
34 [label="mse = 0.07\nsamples = 7\nvalue = 0.07", fillcolor="#fdf6f1"] ;
33 -> 34 ;
35 [label="mse = 0.07\nsamples = 8\nvalue = 0.08", fillcolor="#fdf5f0"] ;
33 -> 35 ;
36 [label="sepal length (cm) <= 32.5\nmse = 0.02\nsamples = 26\nvalue = 0.03", fillcolor="#fefcfa"] ;
30 -> 36 ;
37 [label="mse = 0.03\nsamples = 21\nvalue = 0.03", fillcolor="#fefbf9"] ;
36 -> 37 ;
38 [label="mse = 0.0\nsamples = 5\nvalue = 0.0", fillcolor="#ffffff"] ;
36 -> 38 ;
39 [label="sepal length (cm) <= 34.5\nmse = 0.13\nsamples = 29\nvalue = 0.15", fillcolor="#fbece2"] ;
3 -> 39 ;
40 [label="mse = 0.25\nsamples = 5\nvalue = 0.5", fillcolor="#f2c09c"] ;
39 -> 40 ;
41 [label="sepal length (cm) <= 36.0\nmse = 0.06\nsamples = 24\nvalue = 0.07", fillcolor="#fdf6f2"] ;
39 -> 41 ;
42 [label="mse = 0.19\nsamples = 2\nvalue = 0.25", fillcolor="#f8e0ce"] ;
41 -> 42 ;
43 [label="sepal length (cm) <= 38.5\nmse = 0.05\nsamples = 22\nvalue = 0.05", fillcolor="#fef9f5"] ;
41 -> 43 ;
44 [label="sepal length (cm) <= 37.5\nmse = 0.07\nsamples = 14\nvalue = 0.07", fillcolor="#fdf6f0"] ;
43 -> 44 ;
45 [label="mse = 0.0\nsamples = 7\nvalue = 0.0", fillcolor="#ffffff"] ;
44 -> 45 ;
46 [label="mse = 0.12\nsamples = 7\nvalue = 0.13", fillcolor="#fceee5"] ;
44 -> 46 ;
47 [label="mse = 0.0\nsamples = 8\nvalue = 0.0", fillcolor="#ffffff"] ;
43 -> 47 ;
48 [label="sepal length (cm) <= 17.3\nmse = 0.16\nsamples = 387\nvalue = 0.19", fillcolor="#fae7d9"] ;
2 -> 48 ;
49 [label="sepal length (cm) <= 15.7\nmse = 0.24\nsamples = 24\nvalue = 0.4", fillcolor="#f4ccaf"] ;
48 -> 49 ;
50 [label="sepal length (cm) <= 15.2\nmse = 0.1\nsamples = 7\nvalue = 0.11", fillcolor="#fcf1e9"] ;
49 -> 50 ;
51 [label="mse = 0.14\nsamples = 5\nvalue = 0.17", fillcolor="#fbeade"] ;
50 -> 51 ;
52 [label="mse = 0.0\nsamples = 2\nvalue = 0.0", fillcolor="#ffffff"] ;
50 -> 52 ;
53 [label="sepal length (cm) <= 16.5\nmse = 0.25\nsamples = 17\nvalue = 0.48", fillcolor="#f2c29f"] ;
49 -> 53 ;
54 [label="mse = 0.23\nsamples = 5\nvalue = 0.64", fillcolor="#eeaf81"] ;
53 -> 54 ;
55 [label="mse = 0.24\nsamples = 12\nvalue = 0.41", fillcolor="#f4cbae"] ;
53 -> 55 ;
56 [label="sepal length (cm) <= 33.5\nmse = 0.15\nsamples = 363\nvalue = 0.18", fillcolor="#fae9dc"] ;
48 -> 56 ;
57 [label="sepal length (cm) <= 27.5\nmse = 0.15\nsamples = 331\nvalue = 0.19", fillcolor="#fae7da"] ;
56 -> 57 ;
58 [label="sepal length (cm) <= 18.5\nmse = 0.16\nsamples = 235\nvalue = 0.2", fillcolor="#fae6d7"] ;
57 -> 58 ;
59 [label="sepal length (cm) <= 17.94\nmse = 0.12\nsamples = 33\nvalue = 0.14", fillcolor="#fbede3"] ;
58 -> 59 ;
60 [label="sepal length (cm) <= 17.74\nmse = 0.17\nsamples = 5\nvalue = 0.22", fillcolor="#f9e3d3"] ;
59 -> 60 ;
61 [label="mse = 0.0\nsamples = 2\nvalue = 0.0", fillcolor="#ffffff"] ;
60 -> 61 ;
62 [label="mse = 0.22\nsamples = 3\nvalue = 0.33", fillcolor="#f6d5bd"] ;
60 -> 62 ;
63 [label="mse = 0.11\nsamples = 28\nvalue = 0.12", fillcolor="#fcefe6"] ;
59 -> 63 ;
64 [label="sepal length (cm) <= 19.5\nmse = 0.17\nsamples = 202\nvalue = 0.21", fillcolor="#fae5d6"] ;
58 -> 64 ;
65 [label="mse = 0.19\nsamples = 27\nvalue = 0.26", fillcolor="#f8decb"] ;
64 -> 65 ;
66 [label="sepal length (cm) <= 20.5\nmse = 0.16\nsamples = 175\nvalue = 0.2", fillcolor="#fae6d7"] ;
64 -> 66 ;
67 [label="mse = 0.13\nsamples = 27\nvalue = 0.15", fillcolor="#fbece2"] ;
66 -> 67 ;
68 [label="sepal length (cm) <= 23.5\nmse = 0.17\nsamples = 148\nvalue = 0.21", fillcolor="#fae5d6"] ;
66 -> 68 ;
69 [label="sepal length (cm) <= 21.5\nmse = 0.18\nsamples = 56\nvalue = 0.24", fillcolor="#f9e1d0"] ;
68 -> 69 ;
70 [label="mse = 0.19\nsamples = 15\nvalue = 0.26", fillcolor="#f8decb"] ;
69 -> 70 ;
71 [label="sepal length (cm) <= 22.5\nmse = 0.18\nsamples = 41\nvalue = 0.23", fillcolor="#f9e2d2"] ;
69 -> 71 ;
72 [label="mse = 0.16\nsamples = 13\nvalue = 0.2", fillcolor="#fae6d7"] ;
71 -> 72 ;
73 [label="mse = 0.18\nsamples = 28\nvalue = 0.24", fillcolor="#f9e0cf"] ;
71 -> 73 ;
74 [label="sepal length (cm) <= 26.5\nmse = 0.15\nsamples = 92\nvalue = 0.19", fillcolor="#fae7d9"] ;
68 -> 74 ;
75 [label="sepal length (cm) <= 24.5\nmse = 0.15\nsamples = 68\nvalue = 0.18", fillcolor="#fae8db"] ;
74 -> 75 ;
76 [label="mse = 0.16\nsamples = 26\nvalue = 0.21", fillcolor="#fae5d6"] ;
75 -> 76 ;
77 [label="sepal length (cm) <= 25.5\nmse = 0.14\nsamples = 42\nvalue = 0.16", fillcolor="#fbeadf"] ;
75 -> 77 ;
78 [label="mse = 0.12\nsamples = 15\nvalue = 0.14", fillcolor="#fbeee4"] ;
77 -> 78 ;
79 [label="mse = 0.15\nsamples = 27\nvalue = 0.18", fillcolor="#fae8db"] ;
77 -> 79 ;
80 [label="mse = 0.17\nsamples = 24\nvalue = 0.22", fillcolor="#f9e3d4"] ;
74 -> 80 ;
81 [label="sepal length (cm) <= 29.5\nmse = 0.14\nsamples = 96\nvalue = 0.16", fillcolor="#fbebdf"] ;
57 -> 81 ;
82 [label="sepal length (cm) <= 28.8\nmse = 0.08\nsamples = 39\nvalue = 0.09", fillcolor="#fdf4ee"] ;
81 -> 82 ;
83 [label="sepal length (cm) <= 28.3\nmse = 0.07\nsamples = 17\nvalue = 0.07", fillcolor="#fdf6f0"] ;
82 -> 83 ;
84 [label="mse = 0.08\nsamples = 15\nvalue = 0.08", fillcolor="#fdf4ee"] ;
83 -> 84 ;
85 [label="mse = 0.0\nsamples = 2\nvalue = 0.0", fillcolor="#ffffff"] ;
83 -> 85 ;
86 [label="mse = 0.09\nsamples = 22\nvalue = 0.1", fillcolor="#fcf3ec"] ;
82 -> 86 ;
87 [label="sepal length (cm) <= 30.5\nmse = 0.17\nsamples = 57\nvalue = 0.21", fillcolor="#f9e4d5"] ;
81 -> 87 ;
88 [label="mse = 0.22\nsamples = 17\nvalue = 0.32", fillcolor="#f7d7bf"] ;
87 -> 88 ;
89 [label="sepal length (cm) <= 32.5\nmse = 0.14\nsamples = 40\nvalue = 0.17", fillcolor="#fbe9dd"] ;
87 -> 89 ;
90 [label="sepal length (cm) <= 31.5\nmse = 0.14\nsamples = 32\nvalue = 0.17", fillcolor="#fbeade"] ;
89 -> 90 ;
91 [label="mse = 0.13\nsamples = 12\nvalue = 0.16", fillcolor="#fbebe0"] ;
90 -> 91 ;
92 [label="mse = 0.14\nsamples = 20\nvalue = 0.17", fillcolor="#fbe9dd"] ;
90 -> 92 ;
93 [label="mse = 0.15\nsamples = 8\nvalue = 0.19", fillcolor="#fae7da"] ;
89 -> 93 ;
94 [label="sepal length (cm) <= 38.5\nmse = 0.06\nsamples = 32\nvalue = 0.06", fillcolor="#fdf8f3"] ;
56 -> 94 ;
95 [label="mse = 0.0\nsamples = 22\nvalue = 0.0", fillcolor="#ffffff"] ;
94 -> 95 ;
96 [label="sepal length (cm) <= 40.5\nmse = 0.16\nsamples = 10\nvalue = 0.2", fillcolor="#fae6d7"] ;
94 -> 96 ;
97 [label="mse = 0.24\nsamples = 4\nvalue = 0.43", fillcolor="#f4c9aa"] ;
96 -> 97 ;
98 [label="mse = 0.0\nsamples = 6\nvalue = 0.0", fillcolor="#ffffff"] ;
96 -> 98 ;
99 [label="sepal width (cm) <= 0.5\nmse = 0.22\nsamples = 653\nvalue = 0.32", fillcolor="#f7d6bf"] ;
1 -> 99 ;
100 [label="sepal length (cm) <= 20.5\nmse = 0.18\nsamples = 275\nvalue = 0.24", fillcolor="#f9e1d0"] ;
99 -> 100 ;
101 [label="sepal length (cm) <= 15.7\nmse = 0.13\nsamples = 72\nvalue = 0.15", fillcolor="#fbece1"] ;
100 -> 101 ;
102 [label="mse = 0.0\nsamples = 5\nvalue = 0.0", fillcolor="#ffffff"] ;
101 -> 102 ;
103 [label="sepal length (cm) <= 17.8\nmse = 0.13\nsamples = 67\nvalue = 0.16", fillcolor="#fbebdf"] ;
101 -> 103 ;
104 [label="sepal length (cm) <= 17.3\nmse = 0.2\nsamples = 12\nvalue = 0.28", fillcolor="#f8dcc8"] ;
103 -> 104 ;
105 [label="sepal length (cm) <= 16.5\nmse = 0.15\nsamples = 11\nvalue = 0.19", fillcolor="#fae7da"] ;
104 -> 105 ;
106 [label="mse = 0.14\nsamples = 4\nvalue = 0.17", fillcolor="#fbeade"] ;
105 -> 106 ;
107 [label="mse = 0.16\nsamples = 7\nvalue = 0.2", fillcolor="#fae6d7"] ;
105 -> 107 ;
108 [label="mse = 0.0\nsamples = 1\nvalue = 1.0", fillcolor="#e58139"] ;
104 -> 108 ;
109 [label="sepal length (cm) <= 19.5\nmse = 0.12\nsamples = 55\nvalue = 0.14", fillcolor="#fbeee4"] ;
103 -> 109 ;
110 [label="sepal length (cm) <= 18.5\nmse = 0.13\nsamples = 44\nvalue = 0.15", fillcolor="#fbede2"] ;
109 -> 110 ;
111 [label="mse = 0.13\nsamples = 22\nvalue = 0.15", fillcolor="#fbece1"] ;
110 -> 111 ;
112 [label="mse = 0.12\nsamples = 22\nvalue = 0.14", fillcolor="#fbede3"] ;
110 -> 112 ;
113 [label="mse = 0.09\nsamples = 11\nvalue = 0.1", fillcolor="#fcf2eb"] ;
109 -> 113 ;
114 [label="sepal length (cm) <= 30.5\nmse = 0.2\nsamples = 203\nvalue = 0.27", fillcolor="#f8ddca"] ;
100 -> 114 ;
115 [label="sepal length (cm) <= 29.5\nmse = 0.21\nsamples = 154\nvalue = 0.31", fillcolor="#f7d8c2"] ;
114 -> 115 ;
116 [label="sepal length (cm) <= 28.3\nmse = 0.21\nsamples = 140\nvalue = 0.3", fillcolor="#f7dac4"] ;
115 -> 116 ;
117 [label="sepal length (cm) <= 26.5\nmse = 0.21\nsamples = 124\nvalue = 0.31", fillcolor="#f7d8c1"] ;
116 -> 117 ;
118 [label="sepal length (cm) <= 25.5\nmse = 0.2\nsamples = 94\nvalue = 0.28", fillcolor="#f8dcc7"] ;
117 -> 118 ;
119 [label="sepal length (cm) <= 23.5\nmse = 0.21\nsamples = 77\nvalue = 0.31", fillcolor="#f7d8c2"] ;
118 -> 119 ;
120 [label="sepal length (cm) <= 21.5\nmse = 0.2\nsamples = 41\nvalue = 0.27", fillcolor="#f8deca"] ;
119 -> 120 ;
121 [label="mse = 0.22\nsamples = 15\nvalue = 0.32", fillcolor="#f7d7c0"] ;
120 -> 121 ;
122 [label="sepal length (cm) <= 22.5\nmse = 0.18\nsamples = 26\nvalue = 0.24", fillcolor="#f9e1d0"] ;
120 -> 122 ;
123 [label="mse = 0.16\nsamples = 8\nvalue = 0.2", fillcolor="#fae6d7"] ;
122 -> 123 ;
124 [label="mse = 0.19\nsamples = 18\nvalue = 0.26", fillcolor="#f8decc"] ;
122 -> 124 ;
125 [label="sepal length (cm) <= 24.5\nmse = 0.23\nsamples = 36\nvalue = 0.36", fillcolor="#f6d2b8"] ;
119 -> 125 ;
126 [label="mse = 0.24\nsamples = 24\nvalue = 0.39", fillcolor="#f5cdb1"] ;
125 -> 126 ;
127 [label="mse = 0.2\nsamples = 12\nvalue = 0.27", fillcolor="#f8ddca"] ;
125 -> 127 ;
128 [label="mse = 0.13\nsamples = 17\nvalue = 0.16", fillcolor="#fbebdf"] ;
118 -> 128 ;
129 [label="sepal length (cm) <= 27.5\nmse = 0.24\nsamples = 30\nvalue = 0.39", fillcolor="#f5ceb2"] ;
117 -> 129 ;
130 [label="mse = 0.25\nsamples = 18\nvalue = 0.45", fillcolor="#f3c6a6"] ;
129 -> 130 ;
131 [label="mse = 0.21\nsamples = 12\nvalue = 0.3", fillcolor="#f7d9c3"] ;
129 -> 131 ;
132 [label="sepal length (cm) <= 28.8\nmse = 0.17\nsamples = 16\nvalue = 0.21", fillcolor="#f9e4d5"] ;
116 -> 132 ;
133 [label="mse = 0.0\nsamples = 1\nvalue = 0.0", fillcolor="#ffffff"] ;
132 -> 133 ;
134 [label="mse = 0.18\nsamples = 15\nvalue = 0.23", fillcolor="#f9e2d1"] ;
132 -> 134 ;
135 [label="mse = 0.24\nsamples = 14\nvalue = 0.39", fillcolor="#f5ceb2"] ;
115 -> 135 ;
136 [label="sepal length (cm) <= 36.0\nmse = 0.14\nsamples = 49\nvalue = 0.16", fillcolor="#fbeade"] ;
114 -> 136 ;
137 [label="sepal length (cm) <= 34.5\nmse = 0.16\nsamples = 37\nvalue = 0.19", fillcolor="#fae7d9"] ;
136 -> 137 ;
138 [label="sepal length (cm) <= 33.5\nmse = 0.11\nsamples = 34\nvalue = 0.13", fillcolor="#fcefe5"] ;
137 -> 138 ;
139 [label="sepal length (cm) <= 32.5\nmse = 0.13\nsamples = 31\nvalue = 0.15", fillcolor="#fbece2"] ;
138 -> 139 ;
140 [label="sepal length (cm) <= 31.5\nmse = 0.14\nsamples = 24\nvalue = 0.16", fillcolor="#fbebdf"] ;
139 -> 140 ;
141 [label="mse = 0.12\nsamples = 9\nvalue = 0.14", fillcolor="#fbede3"] ;
140 -> 141 ;
142 [label="mse = 0.14\nsamples = 15\nvalue = 0.17", fillcolor="#fae9dd"] ;
140 -> 142 ;
143 [label="mse = 0.09\nsamples = 7\nvalue = 0.1", fillcolor="#fcf2eb"] ;
139 -> 143 ;
144 [label="mse = 0.0\nsamples = 3\nvalue = 0.0", fillcolor="#ffffff"] ;
138 -> 144 ;
145 [label="mse = 0.23\nsamples = 3\nvalue = 0.62", fillcolor="#efb083"] ;
137 -> 145 ;
146 [label="sepal length (cm) <= 37.5\nmse = 0.08\nsamples = 12\nvalue = 0.09", fillcolor="#fdf4ee"] ;
136 -> 146 ;
147 [label="mse = 0.0\nsamples = 4\nvalue = 0.0", fillcolor="#ffffff"] ;
146 -> 147 ;
148 [label="sepal length (cm) <= 38.5\nmse = 0.1\nsamples = 8\nvalue = 0.12", fillcolor="#fcf0e8"] ;
146 -> 148 ;
149 [label="mse = 0.12\nsamples = 6\nvalue = 0.14", fillcolor="#fbede3"] ;
148 -> 149 ;
150 [label="mse = 0.0\nsamples = 2\nvalue = 0.0", fillcolor="#ffffff"] ;
148 -> 150 ;
151 [label="sepal length (cm) <= 23.5\nmse = 0.24\nsamples = 378\nvalue = 0.39", fillcolor="#f5ceb2"] ;
99 -> 151 ;
152 [label="sepal length (cm) <= 21.5\nmse = 0.25\nsamples = 175\nvalue = 0.49", fillcolor="#f2c19e"] ;
151 -> 152 ;
153 [label="sepal length (cm) <= 20.5\nmse = 0.24\nsamples = 127\nvalue = 0.42", fillcolor="#f4caac"] ;
152 -> 153 ;
154 [label="sepal length (cm) <= 14.5\nmse = 0.25\nsamples = 103\nvalue = 0.51", fillcolor="#f2bf9a"] ;
153 -> 154 ;
155 [label="mse = 0.0\nsamples = 2\nvalue = 0.0", fillcolor="#ffffff"] ;
154 -> 155 ;
156 [label="sepal length (cm) <= 19.5\nmse = 0.25\nsamples = 101\nvalue = 0.52", fillcolor="#f1be98"] ;
154 -> 156 ;
157 [label="sepal length (cm) <= 17.3\nmse = 0.25\nsamples = 78\nvalue = 0.49", fillcolor="#f2c29f"] ;
156 -> 157 ;
158 [label="sepal length (cm) <= 16.5\nmse = 0.24\nsamples = 28\nvalue = 0.59", fillcolor="#f0b58a"] ;
157 -> 158 ;
159 [label="sepal length (cm) <= 15.5\nmse = 0.24\nsamples = 13\nvalue = 0.62", fillcolor="#efb184"] ;
158 -> 159 ;
160 [label="mse = 0.24\nsamples = 7\nvalue = 0.6", fillcolor="#efb388"] ;
159 -> 160 ;
161 [label="mse = 0.23\nsamples = 6\nvalue = 0.64", fillcolor="#eeaf81"] ;
159 -> 161 ;
162 [label="mse = 0.25\nsamples = 15\nvalue = 0.57", fillcolor="#f0b88f"] ;
158 -> 162 ;
163 [label="sepal length (cm) <= 17.8\nmse = 0.24\nsamples = 50\nvalue = 0.42", fillcolor="#f4caac"] ;
157 -> 163 ;
164 [label="mse = 0.0\nsamples = 2\nvalue = 0.0", fillcolor="#ffffff"] ;
163 -> 164 ;
165 [label="sepal length (cm) <= 18.5\nmse = 0.25\nsamples = 48\nvalue = 0.44", fillcolor="#f4c8a8"] ;
163 -> 165 ;
166 [label="mse = 0.24\nsamples = 23\nvalue = 0.42", fillcolor="#f4caab"] ;
165 -> 166 ;
167 [label="mse = 0.25\nsamples = 25\nvalue = 0.45", fillcolor="#f3c6a5"] ;
165 -> 167 ;
168 [label="mse = 0.24\nsamples = 23\nvalue = 0.61", fillcolor="#efb286"] ;
156 -> 168 ;
169 [label="mse = 0.11\nsamples = 24\nvalue = 0.13", fillcolor="#fcefe6"] ;
153 -> 169 ;
170 [label="sepal length (cm) <= 22.5\nmse = 0.22\nsamples = 48\nvalue = 0.69", fillcolor="#eda977"] ;
152 -> 170 ;
171 [label="mse = 0.22\nsamples = 14\nvalue = 0.68", fillcolor="#eda978"] ;
170 -> 171 ;
172 [label="mse = 0.21\nsamples = 34\nvalue = 0.69", fillcolor="#eda877"] ;
170 -> 172 ;
173 [label="sepal length (cm) <= 28.5\nmse = 0.21\nsamples = 203\nvalue = 0.3", fillcolor="#f7dac4"] ;
151 -> 173 ;
174 [label="sepal length (cm) <= 25.5\nmse = 0.23\nsamples = 113\nvalue = 0.35", fillcolor="#f6d3ba"] ;
173 -> 174 ;
175 [label="sepal length (cm) <= 24.5\nmse = 0.22\nsamples = 48\nvalue = 0.32", fillcolor="#f7d7c0"] ;
174 -> 175 ;
176 [label="mse = 0.23\nsamples = 33\nvalue = 0.36", fillcolor="#f6d1b7"] ;
175 -> 176 ;
177 [label="mse = 0.15\nsamples = 15\nvalue = 0.18", fillcolor="#fae9dc"] ;
175 -> 177 ;
178 [label="sepal length (cm) <= 26.5\nmse = 0.23\nsamples = 65\nvalue = 0.37", fillcolor="#f5d0b6"] ;
174 -> 178 ;
179 [label="mse = 0.24\nsamples = 26\nvalue = 0.4", fillcolor="#f5cdb0"] ;
178 -> 179 ;
180 [label="sepal length (cm) <= 27.5\nmse = 0.23\nsamples = 39\nvalue = 0.35", fillcolor="#f6d3ba"] ;
178 -> 180 ;
181 [label="mse = 0.22\nsamples = 20\nvalue = 0.33", fillcolor="#f6d5bd"] ;
180 -> 181 ;
182 [label="mse = 0.23\nsamples = 19\nvalue = 0.36", fillcolor="#f6d2b8"] ;
180 -> 182 ;
183 [label="sepal length (cm) <= 38.5\nmse = 0.18\nsamples = 90\nvalue = 0.23", fillcolor="#f9e2d2"] ;
173 -> 183 ;
184 [label="sepal length (cm) <= 29.5\nmse = 0.16\nsamples = 81\nvalue = 0.2", fillcolor="#fae6d8"] ;
183 -> 184 ;
185 [label="mse = 0.11\nsamples = 25\nvalue = 0.12", fillcolor="#fcf0e7"] ;
184 -> 185 ;
186 [label="sepal length (cm) <= 31.5\nmse = 0.18\nsamples = 56\nvalue = 0.23", fillcolor="#f9e2d2"] ;
184 -> 186 ;
187 [label="sepal length (cm) <= 30.5\nmse = 0.23\nsamples = 23\nvalue = 0.35", fillcolor="#f6d2b9"] ;
186 -> 187 ;
188 [label="mse = 0.24\nsamples = 12\nvalue = 0.41", fillcolor="#f4cbad"] ;
187 -> 188 ;
189 [label="mse = 0.2\nsamples = 11\nvalue = 0.29", fillcolor="#f8dbc6"] ;
187 -> 189 ;
190 [label="sepal length (cm) <= 37.5\nmse = 0.13\nsamples = 33\nvalue = 0.15", fillcolor="#fbece1"] ;
186 -> 190 ;
191 [label="sepal length (cm) <= 33.5\nmse = 0.1\nsamples = 28\nvalue = 0.12", fillcolor="#fcf0e7"] ;
190 -> 191 ;
192 [label="sepal length (cm) <= 32.5\nmse = 0.16\nsamples = 20\nvalue = 0.19", fillcolor="#fae7d9"] ;
191 -> 192 ;
193 [label="mse = 0.13\nsamples = 14\nvalue = 0.15", fillcolor="#fbece1"] ;
192 -> 193 ;
194 [label="mse = 0.22\nsamples = 6\nvalue = 0.33", fillcolor="#f6d5bd"] ;
192 -> 194 ;
195 [label="mse = 0.0\nsamples = 8\nvalue = 0.0", fillcolor="#ffffff"] ;
191 -> 195 ;
196 [label="mse = 0.21\nsamples = 5\nvalue = 0.3", fillcolor="#f7d9c4"] ;
190 -> 196 ;
197 [label="sepal length (cm) <= 40.5\nmse = 0.25\nsamples = 9\nvalue = 0.5", fillcolor="#f2c09c"] ;
183 -> 197 ;
198 [label="mse = 0.0\nsamples = 3\nvalue = 1.0", fillcolor="#e58139"] ;
197 -> 198 ;
199 [label="sepal length (cm) <= 42.5\nmse = 0.22\nsamples = 6\nvalue = 0.33", fillcolor="#f6d5bd"] ;
197 -> 199 ;
200 [label="mse = 0.25\nsamples = 4\nvalue = 0.5", fillcolor="#f2c09c"] ;
199 -> 200 ;
201 [label="mse = 0.0\nsamples = 2\nvalue = 0.0", fillcolor="#ffffff"] ;
199 -> 201 ;
202 [label="sepal width (cm) <= 0.5\nmse = 0.24\nsamples = 1525\nvalue = 0.59", fillcolor="#f0b489"] ;
0 -> 202 [labeldistance=2.5, labelangle=-45, headlabel="False"] ;
203 [label="petal length (cm) <= 0.5\nmse = 0.24\nsamples = 608\nvalue = 0.4", fillcolor="#f5cdb1"] ;
202 -> 203 ;
204 [label="sepal length (cm) <= 29.5\nmse = 0.22\nsamples = 305\nvalue = 0.32", fillcolor="#f7d7c1"] ;
203 -> 204 ;
205 [label="sepal length (cm) <= 23.5\nmse = 0.23\nsamples = 228\nvalue = 0.36", fillcolor="#f6d2b9"] ;
204 -> 205 ;
206 [label="sepal length (cm) <= 15.7\nmse = 0.21\nsamples = 136\nvalue = 0.3", fillcolor="#f7d9c3"] ;
205 -> 206 ;
207 [label="mse = 0.0\nsamples = 7\nvalue = 0.0", fillcolor="#ffffff"] ;
206 -> 207 ;
208 [label="sepal length (cm) <= 16.5\nmse = 0.22\nsamples = 129\nvalue = 0.32", fillcolor="#f7d7c0"] ;
206 -> 208 ;
209 [label="mse = 0.2\nsamples = 5\nvalue = 0.71", fillcolor="#eca572"] ;
208 -> 209 ;
210 [label="sepal length (cm) <= 17.3\nmse = 0.21\nsamples = 124\nvalue = 0.3", fillcolor="#f7d9c3"] ;
208 -> 210 ;
211 [label="mse = 0.12\nsamples = 10\nvalue = 0.13", fillcolor="#fceee5"] ;
210 -> 211 ;
212 [label="sepal length (cm) <= 17.74\nmse = 0.22\nsamples = 114\nvalue = 0.32", fillcolor="#f7d7c0"] ;
210 -> 212 ;
213 [label="mse = 0.0\nsamples = 2\nvalue = 1.0", fillcolor="#e58139"] ;
212 -> 213 ;
214 [label="sepal length (cm) <= 17.94\nmse = 0.21\nsamples = 112\nvalue = 0.31", fillcolor="#f7d8c2"] ;
212 -> 214 ;
215 [label="mse = 0.0\nsamples = 3\nvalue = 0.0", fillcolor="#ffffff"] ;
214 -> 215 ;
216 [label="sepal length (cm) <= 18.5\nmse = 0.22\nsamples = 109\nvalue = 0.32", fillcolor="#f7d7c0"] ;
214 -> 216 ;
217 [label="mse = 0.25\nsamples = 21\nvalue = 0.46", fillcolor="#f3c5a4"] ;
216 -> 217 ;
218 [label="sepal length (cm) <= 21.5\nmse = 0.21\nsamples = 88\nvalue = 0.29", fillcolor="#f7dac5"] ;
216 -> 218 ;
219 [label="sepal length (cm) <= 19.5\nmse = 0.22\nsamples = 55\nvalue = 0.32", fillcolor="#f7d6bf"] ;
218 -> 219 ;
220 [label="mse = 0.2\nsamples = 22\nvalue = 0.28", fillcolor="#f8dcc8"] ;
219 -> 220 ;
221 [label="sepal length (cm) <= 20.5\nmse = 0.23\nsamples = 33\nvalue = 0.37", fillcolor="#f6d1b7"] ;
219 -> 221 ;
222 [label="mse = 0.23\nsamples = 19\nvalue = 0.34", fillcolor="#f6d4bb"] ;
221 -> 222 ;
223 [label="mse = 0.24\nsamples = 14\nvalue = 0.39", fillcolor="#f5ceb2"] ;
221 -> 223 ;
224 [label="sepal length (cm) <= 22.5\nmse = 0.18\nsamples = 33\nvalue = 0.23", fillcolor="#f9e2d1"] ;
218 -> 224 ;
225 [label="mse = 0.17\nsamples = 7\nvalue = 0.22", fillcolor="#f9e3d3"] ;
224 -> 225 ;
226 [label="mse = 0.18\nsamples = 26\nvalue = 0.23", fillcolor="#f9e2d1"] ;
224 -> 226 ;
227 [label="sepal length (cm) <= 25.5\nmse = 0.25\nsamples = 92\nvalue = 0.44", fillcolor="#f4c8a8"] ;
205 -> 227 ;
228 [label="sepal length (cm) <= 24.5\nmse = 0.24\nsamples = 26\nvalue = 0.38", fillcolor="#f5cfb4"] ;
227 -> 228 ;
229 [label="mse = 0.25\nsamples = 18\nvalue = 0.47", fillcolor="#f3c4a3"] ;
228 -> 229 ;
230 [label="mse = 0.14\nsamples = 8\nvalue = 0.17", fillcolor="#fbeade"] ;
228 -> 230 ;
231 [label="sepal length (cm) <= 28.8\nmse = 0.25\nsamples = 66\nvalue = 0.46", fillcolor="#f3c5a4"] ;
227 -> 231 ;
232 [label="sepal length (cm) <= 28.3\nmse = 0.25\nsamples = 49\nvalue = 0.48", fillcolor="#f3c3a1"] ;
231 -> 232 ;
233 [label="sepal length (cm) <= 26.5\nmse = 0.25\nsamples = 47\nvalue = 0.47", fillcolor="#f3c4a3"] ;
232 -> 233 ;
234 [label="mse = 0.25\nsamples = 20\nvalue = 0.5", fillcolor="#f2c09c"] ;
233 -> 234 ;
235 [label="sepal length (cm) <= 27.5\nmse = 0.25\nsamples = 27\nvalue = 0.44", fillcolor="#f3c7a7"] ;
233 -> 235 ;
236 [label="mse = 0.24\nsamples = 14\nvalue = 0.42", fillcolor="#f4caac"] ;
235 -> 236 ;
237 [label="mse = 0.25\nsamples = 13\nvalue = 0.48", fillcolor="#f3c3a1"] ;
235 -> 237 ;
238 [label="mse = 0.24\nsamples = 2\nvalue = 0.57", fillcolor="#f0b78e"] ;
232 -> 238 ;
239 [label="mse = 0.24\nsamples = 17\nvalue = 0.4", fillcolor="#f5cdb0"] ;
231 -> 239 ;
240 [label="sepal length (cm) <= 38.5\nmse = 0.16\nsamples = 77\nvalue = 0.2", fillcolor="#fae6d7"] ;
204 -> 240 ;
241 [label="sepal length (cm) <= 34.5\nmse = 0.14\nsamples = 71\nvalue = 0.17", fillcolor="#fae9dd"] ;
240 -> 241 ;
242 [label="sepal length (cm) <= 30.5\nmse = 0.18\nsamples = 56\nvalue = 0.23", fillcolor="#f9e2d2"] ;
241 -> 242 ;
243 [label="mse = 0.12\nsamples = 16\nvalue = 0.13", fillcolor="#fceee5"] ;
242 -> 243 ;
244 [label="sepal length (cm) <= 31.5\nmse = 0.2\nsamples = 40\nvalue = 0.28", fillcolor="#f8dcc8"] ;
242 -> 244 ;
245 [label="mse = 0.25\nsamples = 11\nvalue = 0.47", fillcolor="#f3c4a3"] ;
244 -> 245 ;
246 [label="sepal length (cm) <= 32.5\nmse = 0.17\nsamples = 29\nvalue = 0.21", fillcolor="#fae5d6"] ;
244 -> 246 ;
247 [label="mse = 0.08\nsamples = 16\nvalue = 0.09", fillcolor="#fdf4ed"] ;
246 -> 247 ;
248 [label="sepal length (cm) <= 33.5\nmse = 0.22\nsamples = 13\nvalue = 0.33", fillcolor="#f6d5bd"] ;
246 -> 248 ;
249 [label="mse = 0.22\nsamples = 9\nvalue = 0.33", fillcolor="#f6d5bd"] ;
248 -> 249 ;
250 [label="mse = 0.22\nsamples = 4\nvalue = 0.33", fillcolor="#f6d5bd"] ;
248 -> 250 ;
251 [label="mse = 0.0\nsamples = 15\nvalue = 0.0", fillcolor="#ffffff"] ;
241 -> 251 ;
252 [label="sepal length (cm) <= 40.5\nmse = 0.25\nsamples = 6\nvalue = 0.5", fillcolor="#f2c09c"] ;
240 -> 252 ;
253 [label="mse = 0.25\nsamples = 5\nvalue = 0.44", fillcolor="#f3c7a7"] ;
252 -> 253 ;
254 [label="mse = 0.0\nsamples = 1\nvalue = 1.0", fillcolor="#e58139"] ;
252 -> 254 ;
255 [label="sepal length (cm) <= 31.5\nmse = 0.25\nsamples = 303\nvalue = 0.47", fillcolor="#f3c3a1"] ;
203 -> 255 ;
256 [label="sepal length (cm) <= 19.5\nmse = 0.25\nsamples = 258\nvalue = 0.5", fillcolor="#f2c09c"] ;
255 -> 256 ;
257 [label="sepal length (cm) <= 18.5\nmse = 0.24\nsamples = 73\nvalue = 0.38", fillcolor="#f5cfb3"] ;
256 -> 257 ;
258 [label="sepal length (cm) <= 17.44\nmse = 0.25\nsamples = 51\nvalue = 0.45", fillcolor="#f3c7a7"] ;
257 -> 258 ;
259 [label="sepal length (cm) <= 15.7\nmse = 0.23\nsamples = 28\nvalue = 0.35", fillcolor="#f6d3ba"] ;
258 -> 259 ;
260 [label="sepal length (cm) <= 14.5\nmse = 0.15\nsamples = 8\nvalue = 0.18", fillcolor="#fae8db"] ;
259 -> 260 ;
261 [label="mse = 0.0\nsamples = 2\nvalue = 0.0", fillcolor="#ffffff"] ;
260 -> 261 ;
262 [label="sepal length (cm) <= 15.2\nmse = 0.17\nsamples = 6\nvalue = 0.22", fillcolor="#f9e3d3"] ;
260 -> 262 ;
263 [label="mse = 0.19\nsamples = 5\nvalue = 0.25", fillcolor="#f8e0ce"] ;
262 -> 263 ;
264 [label="mse = 0.0\nsamples = 1\nvalue = 0.0", fillcolor="#ffffff"] ;
262 -> 264 ;
265 [label="sepal length (cm) <= 16.5\nmse = 0.24\nsamples = 20\nvalue = 0.39", fillcolor="#f5ceb2"] ;
259 -> 265 ;
266 [label="mse = 0.17\nsamples = 5\nvalue = 0.78", fillcolor="#eb9d65"] ;
265 -> 266 ;
267 [label="mse = 0.2\nsamples = 15\nvalue = 0.28", fillcolor="#f8dcc7"] ;
265 -> 267 ;
268 [label="sepal length (cm) <= 17.94\nmse = 0.24\nsamples = 23\nvalue = 0.61", fillcolor="#efb286"] ;
258 -> 268 ;
269 [label="mse = 0.0\nsamples = 1\nvalue = 1.0", fillcolor="#e58139"] ;
268 -> 269 ;
270 [label="mse = 0.24\nsamples = 22\nvalue = 0.6", fillcolor="#efb388"] ;
268 -> 270 ;
271 [label="mse = 0.18\nsamples = 22\nvalue = 0.24", fillcolor="#f9e1d0"] ;
257 -> 271 ;
272 [label="sepal length (cm) <= 30.5\nmse = 0.25\nsamples = 185\nvalue = 0.54", fillcolor="#f1bb94"] ;
256 -> 272 ;
273 [label="sepal length (cm) <= 23.5\nmse = 0.25\nsamples = 168\nvalue = 0.52", fillcolor="#f1bd97"] ;
272 -> 273 ;
274 [label="sepal length (cm) <= 21.5\nmse = 0.24\nsamples = 57\nvalue = 0.61", fillcolor="#efb285"] ;
273 -> 274 ;
275 [label="sepal length (cm) <= 20.5\nmse = 0.25\nsamples = 31\nvalue = 0.54", fillcolor="#f1bc95"] ;
274 -> 275 ;
276 [label="mse = 0.22\nsamples = 14\nvalue = 0.67", fillcolor="#eeab7b"] ;
275 -> 276 ;
277 [label="mse = 0.24\nsamples = 17\nvalue = 0.38", fillcolor="#f5cfb3"] ;
275 -> 277 ;
278 [label="sepal length (cm) <= 22.5\nmse = 0.2\nsamples = 26\nvalue = 0.72", fillcolor="#eca46f"] ;
274 -> 278 ;
279 [label="mse = 0.22\nsamples = 14\nvalue = 0.68", fillcolor="#eda978"] ;
278 -> 279 ;
280 [label="mse = 0.17\nsamples = 12\nvalue = 0.78", fillcolor="#eb9d65"] ;
278 -> 280 ;
281 [label="sepal length (cm) <= 29.5\nmse = 0.25\nsamples = 111\nvalue = 0.48", fillcolor="#f3c3a1"] ;
273 -> 281 ;
282 [label="sepal length (cm) <= 25.5\nmse = 0.25\nsamples = 98\nvalue = 0.49", fillcolor="#f2c19d"] ;
281 -> 282 ;
283 [label="sepal length (cm) <= 24.5\nmse = 0.24\nsamples = 32\nvalue = 0.43", fillcolor="#f4c9aa"] ;
282 -> 283 ;
284 [label="mse = 0.25\nsamples = 16\nvalue = 0.48", fillcolor="#f3c3a0"] ;
283 -> 284 ;
285 [label="mse = 0.23\nsamples = 16\nvalue = 0.38", fillcolor="#f5d0b5"] ;
283 -> 285 ;
286 [label="sepal length (cm) <= 26.5\nmse = 0.25\nsamples = 66\nvalue = 0.52", fillcolor="#f1bd98"] ;
282 -> 286 ;
287 [label="mse = 0.23\nsamples = 20\nvalue = 0.62", fillcolor="#efb083"] ;
286 -> 287 ;
288 [label="sepal length (cm) <= 28.3\nmse = 0.25\nsamples = 46\nvalue = 0.46", fillcolor="#f3c4a3"] ;
286 -> 288 ;
289 [label="sepal length (cm) <= 27.5\nmse = 0.24\nsamples = 25\nvalue = 0.39", fillcolor="#f5ceb2"] ;
288 -> 289 ;
290 [label="mse = 0.25\nsamples = 15\nvalue = 0.5", fillcolor="#f2c09c"] ;
289 -> 290 ;
291 [label="mse = 0.16\nsamples = 10\nvalue = 0.2", fillcolor="#fae6d7"] ;
289 -> 291 ;
292 [label="sepal length (cm) <= 28.8\nmse = 0.25\nsamples = 21\nvalue = 0.57", fillcolor="#f0b88f"] ;
288 -> 292 ;
293 [label="mse = 0.0\nsamples = 2\nvalue = 1.0", fillcolor="#e58139"] ;
292 -> 293 ;
294 [label="mse = 0.25\nsamples = 19\nvalue = 0.54", fillcolor="#f1bc95"] ;
292 -> 294 ;
295 [label="mse = 0.22\nsamples = 13\nvalue = 0.33", fillcolor="#f6d5bd"] ;
281 -> 295 ;
296 [label="mse = 0.19\nsamples = 17\nvalue = 0.74", fillcolor="#eca26c"] ;
272 -> 296 ;
297 [label="sepal length (cm) <= 38.5\nmse = 0.22\nsamples = 45\nvalue = 0.33", fillcolor="#f6d5bd"] ;
255 -> 297 ;
298 [label="sepal length (cm) <= 36.5\nmse = 0.18\nsamples = 33\nvalue = 0.24", fillcolor="#f9e1d0"] ;
297 -> 298 ;
299 [label="sepal length (cm) <= 35.5\nmse = 0.21\nsamples = 28\nvalue = 0.29", fillcolor="#f7dac5"] ;
298 -> 299 ;
300 [label="sepal length (cm) <= 32.5\nmse = 0.2\nsamples = 27\nvalue = 0.28", fillcolor="#f8dcc9"] ;
299 -> 300 ;
301 [label="mse = 0.18\nsamples = 17\nvalue = 0.23", fillcolor="#f9e2d1"] ;
300 -> 301 ;
302 [label="sepal length (cm) <= 34.5\nmse = 0.23\nsamples = 10\nvalue = 0.36", fillcolor="#f6d2b8"] ;
300 -> 302 ;
303 [label="sepal length (cm) <= 33.5\nmse = 0.22\nsamples = 7\nvalue = 0.33", fillcolor="#f6d5bd"] ;
302 -> 303 ;
304 [label="mse = 0.23\nsamples = 6\nvalue = 0.38", fillcolor="#f5d0b5"] ;
303 -> 304 ;
305 [label="mse = 0.0\nsamples = 1\nvalue = 0.0", fillcolor="#ffffff"] ;
303 -> 305 ;
306 [label="mse = 0.24\nsamples = 3\nvalue = 0.4", fillcolor="#f5cdb0"] ;
302 -> 306 ;
307 [label="mse = 0.0\nsamples = 1\nvalue = 1.0", fillcolor="#e58139"] ;
299 -> 307 ;
308 [label="mse = 0.0\nsamples = 5\nvalue = 0.0", fillcolor="#ffffff"] ;
298 -> 308 ;
309 [label="sepal length (cm) <= 42.5\nmse = 0.24\nsamples = 12\nvalue = 0.57", fillcolor="#f0b78e"] ;
297 -> 309 ;
310 [label="sepal length (cm) <= 40.5\nmse = 0.24\nsamples = 11\nvalue = 0.6", fillcolor="#efb388"] ;
309 -> 310 ;
311 [label="mse = 0.25\nsamples = 8\nvalue = 0.53", fillcolor="#f1bc96"] ;
310 -> 311 ;
312 [label="mse = 0.0\nsamples = 3\nvalue = 1.0", fillcolor="#e58139"] ;
310 -> 312 ;
313 [label="mse = 0.0\nsamples = 1\nvalue = 0.0", fillcolor="#ffffff"] ;
309 -> 313 ;
314 [label="petal length (cm) <= 0.5\nmse = 0.2\nsamples = 917\nvalue = 0.73", fillcolor="#eca36f"] ;
202 -> 314 ;
315 [label="sepal length (cm) <= 23.5\nmse = 0.25\nsamples = 265\nvalue = 0.49", fillcolor="#f2c19e"] ;
314 -> 315 ;
316 [label="sepal length (cm) <= 14.5\nmse = 0.23\nsamples = 100\nvalue = 0.63", fillcolor="#efb082"] ;
315 -> 316 ;
317 [label="mse = 0.0\nsamples = 1\nvalue = 0.0", fillcolor="#ffffff"] ;
316 -> 317 ;
318 [label="sepal length (cm) <= 16.5\nmse = 0.23\nsamples = 99\nvalue = 0.64", fillcolor="#eeae80"] ;
316 -> 318 ;
319 [label="sepal length (cm) <= 15.5\nmse = 0.11\nsamples = 12\nvalue = 0.88", fillcolor="#e89152"] ;
318 -> 319 ;
320 [label="mse = 0.12\nsamples = 5\nvalue = 0.86", fillcolor="#e99355"] ;
319 -> 320 ;
321 [label="mse = 0.09\nsamples = 7\nvalue = 0.9", fillcolor="#e88e4d"] ;
319 -> 321 ;
322 [label="sepal length (cm) <= 21.5\nmse = 0.24\nsamples = 87\nvalue = 0.6", fillcolor="#efb388"] ;
318 -> 322 ;
323 [label="sepal length (cm) <= 20.5\nmse = 0.25\nsamples = 58\nvalue = 0.56", fillcolor="#f1b991"] ;
322 -> 323 ;
324 [label="sepal length (cm) <= 19.5\nmse = 0.23\nsamples = 47\nvalue = 0.63", fillcolor="#efaf81"] ;
323 -> 324 ;
325 [label="sepal length (cm) <= 18.5\nmse = 0.24\nsamples = 36\nvalue = 0.58", fillcolor="#f0b68c"] ;
324 -> 325 ;
326 [label="sepal length (cm) <= 17.3\nmse = 0.23\nsamples = 21\nvalue = 0.65", fillcolor="#eead7f"] ;
325 -> 326 ;
327 [label="mse = 0.25\nsamples = 6\nvalue = 0.5", fillcolor="#f2c09c"] ;
326 -> 327 ;
328 [label="sepal length (cm) <= 17.8\nmse = 0.21\nsamples = 15\nvalue = 0.69", fillcolor="#eda876"] ;
326 -> 328 ;
329 [label="mse = 0.0\nsamples = 1\nvalue = 1.0", fillcolor="#e58139"] ;
328 -> 329 ;
330 [label="mse = 0.22\nsamples = 14\nvalue = 0.68", fillcolor="#edaa79"] ;
328 -> 330 ;
331 [label="mse = 0.25\nsamples = 15\nvalue = 0.48", fillcolor="#f3c3a0"] ;
325 -> 331 ;
332 [label="mse = 0.16\nsamples = 11\nvalue = 0.8", fillcolor="#ea9a61"] ;
324 -> 332 ;
333 [label="mse = 0.15\nsamples = 11\nvalue = 0.18", fillcolor="#fae9dc"] ;
323 -> 333 ;
334 [label="sepal length (cm) <= 22.5\nmse = 0.21\nsamples = 29\nvalue = 0.7", fillcolor="#eda674"] ;
322 -> 334 ;
335 [label="mse = 0.21\nsamples = 11\nvalue = 0.71", fillcolor="#eda673"] ;
334 -> 335 ;
336 [label="mse = 0.21\nsamples = 18\nvalue = 0.7", fillcolor="#eda674"] ;
334 -> 336 ;
337 [label="sepal length (cm) <= 36.5\nmse = 0.24\nsamples = 165\nvalue = 0.4", fillcolor="#f5cdb0"] ;
315 -> 337 ;
338 [label="sepal length (cm) <= 34.5\nmse = 0.24\nsamples = 152\nvalue = 0.42", fillcolor="#f4caac"] ;
337 -> 338 ;
339 [label="sepal length (cm) <= 31.5\nmse = 0.24\nsamples = 145\nvalue = 0.41", fillcolor="#f4ccaf"] ;
338 -> 339 ;
340 [label="sepal length (cm) <= 30.5\nmse = 0.24\nsamples = 128\nvalue = 0.42", fillcolor="#f4caac"] ;
339 -> 340 ;
341 [label="sepal length (cm) <= 28.5\nmse = 0.24\nsamples = 113\nvalue = 0.4", fillcolor="#f5ccaf"] ;
340 -> 341 ;
342 [label="sepal length (cm) <= 26.5\nmse = 0.25\nsamples = 84\nvalue = 0.44", fillcolor="#f4c8a8"] ;
341 -> 342 ;
343 [label="sepal length (cm) <= 24.5\nmse = 0.24\nsamples = 51\nvalue = 0.38", fillcolor="#f5cfb3"] ;
342 -> 343 ;
344 [label="mse = 0.25\nsamples = 20\nvalue = 0.5", fillcolor="#f2c09c"] ;
343 -> 344 ;
345 [label="sepal length (cm) <= 25.5\nmse = 0.22\nsamples = 31\nvalue = 0.31", fillcolor="#f7d7c1"] ;
343 -> 345 ;
346 [label="mse = 0.21\nsamples = 16\nvalue = 0.31", fillcolor="#f7d8c2"] ;
345 -> 346 ;
347 [label="mse = 0.22\nsamples = 15\nvalue = 0.32", fillcolor="#f7d7c0"] ;
345 -> 347 ;
348 [label="sepal length (cm) <= 27.5\nmse = 0.25\nsamples = 33\nvalue = 0.53", fillcolor="#f1bc96"] ;
342 -> 348 ;
349 [label="mse = 0.24\nsamples = 19\nvalue = 0.62", fillcolor="#efb184"] ;
348 -> 349 ;
350 [label="mse = 0.24\nsamples = 14\nvalue = 0.42", fillcolor="#f4caac"] ;
348 -> 350 ;
351 [label="sepal length (cm) <= 29.5\nmse = 0.2\nsamples = 29\nvalue = 0.29", fillcolor="#f8dbc6"] ;
341 -> 351 ;
352 [label="mse = 0.19\nsamples = 18\nvalue = 0.25", fillcolor="#f8e0ce"] ;
351 -> 352 ;
353 [label="mse = 0.23\nsamples = 11\nvalue = 0.36", fillcolor="#f6d2b8"] ;
351 -> 353 ;
354 [label="mse = 0.25\nsamples = 15\nvalue = 0.54", fillcolor="#f1bb94"] ;
340 -> 354 ;
355 [label="sepal length (cm) <= 32.5\nmse = 0.2\nsamples = 17\nvalue = 0.28", fillcolor="#f8dcc8"] ;
339 -> 355 ;
356 [label="mse = 0.0\nsamples = 8\nvalue = 0.0", fillcolor="#ffffff"] ;
355 -> 356 ;
357 [label="sepal length (cm) <= 33.5\nmse = 0.25\nsamples = 9\nvalue = 0.54", fillcolor="#f1bb94"] ;
355 -> 357 ;
358 [label="mse = 0.25\nsamples = 7\nvalue = 0.55", fillcolor="#f1ba93"] ;
357 -> 358 ;
359 [label="mse = 0.25\nsamples = 2\nvalue = 0.5", fillcolor="#f2c09c"] ;
357 -> 359 ;
360 [label="sepal length (cm) <= 35.5\nmse = 0.11\nsamples = 7\nvalue = 0.88", fillcolor="#e89152"] ;
338 -> 360 ;
361 [label="mse = 0.14\nsamples = 5\nvalue = 0.83", fillcolor="#e9965a"] ;
360 -> 361 ;
362 [label="mse = 0.0\nsamples = 2\nvalue = 1.0", fillcolor="#e58139"] ;
360 -> 362 ;
363 [label="sepal length (cm) <= 38.5\nmse = 0.15\nsamples = 13\nvalue = 0.18", fillcolor="#fae8db"] ;
337 -> 363 ;
364 [label="mse = 0.0\nsamples = 7\nvalue = 0.0", fillcolor="#ffffff"] ;
363 -> 364 ;
365 [label="sepal length (cm) <= 42.5\nmse = 0.24\nsamples = 6\nvalue = 0.4", fillcolor="#f5cdb0"] ;
363 -> 365 ;
366 [label="sepal length (cm) <= 40.5\nmse = 0.25\nsamples = 5\nvalue = 0.44", fillcolor="#f3c7a7"] ;
365 -> 366 ;
367 [label="mse = 0.19\nsamples = 3\nvalue = 0.25", fillcolor="#f8e0ce"] ;
366 -> 367 ;
368 [label="mse = 0.24\nsamples = 2\nvalue = 0.6", fillcolor="#efb388"] ;
366 -> 368 ;
369 [label="mse = 0.0\nsamples = 1\nvalue = 0.0", fillcolor="#ffffff"] ;
365 -> 369 ;
370 [label="sepal length (cm) <= 27.5\nmse = 0.15\nsamples = 652\nvalue = 0.82", fillcolor="#ea975c"] ;
314 -> 370 ;
371 [label="sepal length (cm) <= 18.5\nmse = 0.13\nsamples = 503\nvalue = 0.85", fillcolor="#e99457"] ;
370 -> 371 ;
372 [label="sepal length (cm) <= 14.5\nmse = 0.19\nsamples = 97\nvalue = 0.75", fillcolor="#eca16b"] ;
371 -> 372 ;
373 [label="mse = 0.0\nsamples = 1\nvalue = 0.0", fillcolor="#ffffff"] ;
372 -> 373 ;
374 [label="sepal length (cm) <= 17.3\nmse = 0.18\nsamples = 96\nvalue = 0.76", fillcolor="#eb9f69"] ;
372 -> 374 ;
375 [label="sepal length (cm) <= 16.5\nmse = 0.15\nsamples = 57\nvalue = 0.82", fillcolor="#ea985d"] ;
374 -> 375 ;
376 [label="sepal length (cm) <= 15.2\nmse = 0.18\nsamples = 28\nvalue = 0.77", fillcolor="#eb9e67"] ;
375 -> 376 ;
377 [label="mse = 0.12\nsamples = 16\nvalue = 0.86", fillcolor="#e99254"] ;
376 -> 377 ;
378 [label="sepal length (cm) <= 15.7\nmse = 0.22\nsamples = 12\nvalue = 0.67", fillcolor="#eeab7b"] ;
376 -> 378 ;
379 [label="mse = 0.0\nsamples = 1\nvalue = 0.0", fillcolor="#ffffff"] ;
378 -> 379 ;
380 [label="mse = 0.21\nsamples = 11\nvalue = 0.7", fillcolor="#eda774"] ;
378 -> 380 ;
381 [label="mse = 0.12\nsamples = 29\nvalue = 0.86", fillcolor="#e99355"] ;
375 -> 381 ;
382 [label="sepal length (cm) <= 17.8\nmse = 0.22\nsamples = 39\nvalue = 0.67", fillcolor="#eeaa7a"] ;
374 -> 382 ;
383 [label="mse = 0.25\nsamples = 2\nvalue = 0.5", fillcolor="#f2c09c"] ;
382 -> 383 ;
384 [label="mse = 0.22\nsamples = 37\nvalue = 0.68", fillcolor="#edaa79"] ;
382 -> 384 ;
385 [label="sepal length (cm) <= 23.5\nmse = 0.11\nsamples = 406\nvalue = 0.88", fillcolor="#e89152"] ;
371 -> 385 ;
386 [label="sepal length (cm) <= 19.5\nmse = 0.08\nsamples = 231\nvalue = 0.91", fillcolor="#e78d4b"] ;
385 -> 386 ;
387 [label="mse = 0.15\nsamples = 49\nvalue = 0.82", fillcolor="#ea985c"] ;
386 -> 387 ;
388 [label="sepal length (cm) <= 21.5\nmse = 0.07\nsamples = 182\nvalue = 0.93", fillcolor="#e78a47"] ;
386 -> 388 ;
389 [label="sepal length (cm) <= 20.5\nmse = 0.09\nsamples = 89\nvalue = 0.9", fillcolor="#e88e4d"] ;
388 -> 389 ;
390 [label="mse = 0.05\nsamples = 49\nvalue = 0.94", fillcolor="#e78845"] ;
389 -> 390 ;
391 [label="mse = 0.14\nsamples = 40\nvalue = 0.83", fillcolor="#e9965a"] ;
389 -> 391 ;
392 [label="sepal length (cm) <= 22.5\nmse = 0.04\nsamples = 93\nvalue = 0.96", fillcolor="#e68641"] ;
388 -> 392 ;
393 [label="mse = 0.0\nsamples = 33\nvalue = 1.0", fillcolor="#e58139"] ;
392 -> 393 ;
394 [label="mse = 0.06\nsamples = 60\nvalue = 0.93", fillcolor="#e78946"] ;
392 -> 394 ;
395 [label="sepal length (cm) <= 26.5\nmse = 0.14\nsamples = 175\nvalue = 0.84", fillcolor="#e99659"] ;
385 -> 395 ;
396 [label="sepal length (cm) <= 25.5\nmse = 0.15\nsamples = 145\nvalue = 0.82", fillcolor="#ea975c"] ;
395 -> 396 ;
397 [label="sepal length (cm) <= 24.5\nmse = 0.15\nsamples = 86\nvalue = 0.82", fillcolor="#ea985d"] ;
396 -> 397 ;
398 [label="mse = 0.15\nsamples = 57\nvalue = 0.82", fillcolor="#ea985d"] ;
397 -> 398 ;
399 [label="mse = 0.15\nsamples = 29\nvalue = 0.81", fillcolor="#ea995e"] ;
397 -> 399 ;
400 [label="mse = 0.14\nsamples = 59\nvalue = 0.83", fillcolor="#e9965a"] ;
396 -> 400 ;
401 [label="mse = 0.09\nsamples = 30\nvalue = 0.9", fillcolor="#e88e4e"] ;
395 -> 401 ;
402 [label="sepal length (cm) <= 30.5\nmse = 0.19\nsamples = 149\nvalue = 0.74", fillcolor="#eca26c"] ;
370 -> 402 ;
403 [label="sepal length (cm) <= 29.5\nmse = 0.24\nsamples = 53\nvalue = 0.61", fillcolor="#efb286"] ;
402 -> 403 ;
404 [label="sepal length (cm) <= 28.3\nmse = 0.19\nsamples = 43\nvalue = 0.74", fillcolor="#eca26d"] ;
403 -> 404 ;
405 [label="mse = 0.21\nsamples = 22\nvalue = 0.7", fillcolor="#eda775"] ;
404 -> 405 ;
406 [label="sepal length (cm) <= 28.8\nmse = 0.17\nsamples = 21\nvalue = 0.78", fillcolor="#eb9d65"] ;
404 -> 406 ;
407 [label="mse = 0.0\nsamples = 3\nvalue = 1.0", fillcolor="#e58139"] ;
406 -> 407 ;
408 [label="mse = 0.19\nsamples = 18\nvalue = 0.75", fillcolor="#eca06a"] ;
406 -> 408 ;
409 [label="mse = 0.1\nsamples = 10\nvalue = 0.11", fillcolor="#fcf1e9"] ;
403 -> 409 ;
410 [label="sepal length (cm) <= 42.5\nmse = 0.15\nsamples = 96\nvalue = 0.81", fillcolor="#ea995f"] ;
402 -> 410 ;
411 [label="sepal length (cm) <= 33.5\nmse = 0.15\nsamples = 95\nvalue = 0.81", fillcolor="#ea985e"] ;
410 -> 411 ;
412 [label="sepal length (cm) <= 31.5\nmse = 0.18\nsamples = 56\nvalue = 0.76", fillcolor="#eb9f69"] ;
411 -> 412 ;
413 [label="mse = 0.08\nsamples = 26\nvalue = 0.91", fillcolor="#e78c4b"] ;
412 -> 413 ;
414 [label="sepal length (cm) <= 32.5\nmse = 0.24\nsamples = 30\nvalue = 0.6", fillcolor="#efb387"] ;
412 -> 414 ;
415 [label="mse = 0.25\nsamples = 18\nvalue = 0.5", fillcolor="#f2c09c"] ;
414 -> 415 ;
416 [label="mse = 0.16\nsamples = 12\nvalue = 0.8", fillcolor="#ea9a61"] ;
414 -> 416 ;
417 [label="sepal length (cm) <= 36.5\nmse = 0.11\nsamples = 39\nvalue = 0.88", fillcolor="#e89051"] ;
411 -> 417 ;
418 [label="sepal length (cm) <= 34.5\nmse = 0.02\nsamples = 20\nvalue = 0.98", fillcolor="#e6843e"] ;
417 -> 418 ;
419 [label="mse = 0.06\nsamples = 7\nvalue = 0.93", fillcolor="#e78946"] ;
418 -> 419 ;
420 [label="mse = 0.0\nsamples = 13\nvalue = 1.0", fillcolor="#e58139"] ;
418 -> 420 ;
421 [label="sepal length (cm) <= 37.5\nmse = 0.18\nsamples = 19\nvalue = 0.77", fillcolor="#eb9e66"] ;
417 -> 421 ;
422 [label="mse = 0.0\nsamples = 2\nvalue = 0.0", fillcolor="#ffffff"] ;
421 -> 422 ;
423 [label="sepal length (cm) <= 38.5\nmse = 0.13\nsamples = 17\nvalue = 0.84", fillcolor="#e99558"] ;
421 -> 423 ;
424 [label="mse = 0.2\nsamples = 7\nvalue = 0.71", fillcolor="#eca572"] ;
423 -> 424 ;
425 [label="sepal length (cm) <= 40.5\nmse = 0.05\nsamples = 10\nvalue = 0.94", fillcolor="#e68844"] ;
423 -> 425 ;
426 [label="mse = 0.06\nsamples = 9\nvalue = 0.94", fillcolor="#e78945"] ;
425 -> 426 ;
427 [label="mse = 0.0\nsamples = 1\nvalue = 1.0", fillcolor="#e58139"] ;
425 -> 427 ;
428 [label="mse = 0.0\nsamples = 1\nvalue = 0.0", fillcolor="#ffffff"] ;
410 -> 428 ;
}